<?xml version="1.0"?>
<opencv_storage>
<stage8>
  <maxWeakCount>19</maxWeakCount>
  <stageThreshold>-1.2047961950302124e+00</stageThreshold>
  <weakClassifiers>
    <_>
      <internalNodes>
        0 -1 4184 -4.9876272678375244e-03</internalNodes>
      <leafValues>
        -1.1922141164541245e-01 -6.2754303216934204e-01</leafValues></_>
    <_>
      <internalNodes>
        0 -1 132071 -4.6954432036727667e-05</internalNodes>
      <leafValues>
        1.6068130731582642e-01 -3.9569044113159180e-01</leafValues></_>
    <_>
      <internalNodes>
        0 -1 816 -4.3774481862783432e-02</internalNodes>
      <leafValues>
        -7.6193344593048096e-01 8.9740693569183350e-02</leafValues></_>
    <_>
      <internalNodes>
        0 -1 27533 2.7473515272140503e-01</internalNodes>
      <leafValues>
        1.1840382218360901e-01 -8.1765949726104736e-01</leafValues></_>
    <_>
      <internalNodes>
        0 -1 11884 1.8247023399453610e-04</internalNodes>
      <leafValues>
        1.0852287709712982e-01 -5.9482318162918091e-01</leafValues></_>
    <_>
      <internalNodes>
        0 -1 162303 -8.6900833994150162e-03</internalNodes>
      <leafValues>
        -8.8435268402099609e-01 7.5299128890037537e-02</leafValues></_>
    <_>
      <internalNodes>
        0 -1 154091 -4.6306253352668136e-05</internalNodes>
      <leafValues>
        2.3754186928272247e-01 -3.1495293974876404e-01</leafValues></_>
    <_>
      <internalNodes>
        0 -1 146911 -1.0938681662082672e-02</internalNodes>
      <leafValues>
        5.5061739683151245e-01 -1.5240970253944397e-01</leafValues></_>
    <_>
      <internalNodes>
        0 -1 89869 -1.9531307043507695e-04</internalNodes>
      <leafValues>
        2.0537526905536652e-01 -3.9878398180007935e-01</leafValues></_>
    <_>
      <internalNodes>
        0 -1 47176 3.4196078777313232e-02</internalNodes>
      <leafValues>
        -1.8581515550613403e-01 5.2564120292663574e-01</leafValues></_>
    <_>
      <internalNodes>
        0 -1 158496 1.5030530281364918e-02</internalNodes>
      <leafValues>
        -2.3212975263595581e-01 3.7481606006622314e-01</leafValues></_>
    <_>
      <internalNodes>
        0 -1 103603 5.2087401854805648e-05</internalNodes>
      <leafValues>
        -3.8638153672218323e-01 2.2542695701122284e-01</leafValues></_>
    <_>
      <internalNodes>
        0 -1 162171 -1.3148206286132336e-02</internalNodes>
      <leafValues>
        -8.8921809196472168e-01 8.9010387659072876e-02</leafValues></_>
    <_>
      <internalNodes>
        0 -1 120158 -5.0500337965786457e-04</internalNodes>
      <leafValues>
        2.7030140161514282e-01 -3.0288508534431458e-01</leafValues></_>
    <_>
      <internalNodes>
        0 -1 8816 -1.0858536697924137e-02</internalNodes>
      <leafValues>
        1.1274081468582153e-01 -7.8656953573226929e-01</leafValues></_>
    <_>
      <internalNodes>
        0 -1 110631 -5.8222733438014984e-02</internalNodes>
      <leafValues>
        -1.9427391886711121e-01 4.8913511633872986e-01</leafValues></_>
    <_>
      <internalNodes>
        0 -1 39097 1.7455779016017914e-02</internalNodes>
      <leafValues>
        -1.3889308273792267e-01 5.8438020944595337e-01</leafValues></_>
    <_>
      <internalNodes>
        0 -1 45330 9.3267865478992462e-02</internalNodes>
      <leafValues>
        -1.0366012156009674e-01 7.4052023887634277e-01</leafValues></_>
    <_>
      <internalNodes>
        0 -1 147695 -3.1064709764905274e-04</internalNodes>
      <leafValues>
        4.0254640579223633e-01 -2.3599220812320709e-01</leafValues></_></weakClassifiers></stage8>
</opencv_storage>
