<?xml version="1.0"?>
<opencv_storage>
<stage3>
  <maxWeakCount>11</maxWeakCount>
  <stageThreshold>-1.1376042366027832e+00</stageThreshold>
  <weakClassifiers>
    <_>
      <internalNodes>
        0 -1 147043 -2.5395731427124701e-05</internalNodes>
      <leafValues>
        -1.0516252368688583e-01 -7.4952560663223267e-01</leafValues></_>
    <_>
      <internalNodes>
        0 -1 5871 -8.8149597868323326e-03</internalNodes>
      <leafValues>
        -8.3679425716400146e-01 1.1441180855035782e-01</leafValues></_>
    <_>
      <internalNodes>
        0 -1 400 2.3913141340017319e-03</internalNodes>
      <leafValues>
        1.9966131448745728e-01 -5.9141832590103149e-01</leafValues></_>
    <_>
      <internalNodes>
        0 -1 400 -2.4214955046772957e-03</internalNodes>
      <leafValues>
        -7.1036761999130249e-01 1.5685398876667023e-01</leafValues></_>
    <_>
      <internalNodes>
        0 -1 2262 -1.1631982401013374e-02</internalNodes>
      <leafValues>
        3.5383966565132141e-01 -3.2941380143165588e-01</leafValues></_>
    <_>
      <internalNodes>
        0 -1 136894 -3.9979669963940978e-04</internalNodes>
      <leafValues>
        2.9013454914093018e-01 -3.8258633017539978e-01</leafValues></_>
    <_>
      <internalNodes>
        0 -1 35087 4.5890152454376221e-02</internalNodes>
      <leafValues>
        -1.7901647090911865e-01 6.4864772558212280e-01</leafValues></_>
    <_>
      <internalNodes>
        0 -1 162323 -5.3487815894186497e-03</internalNodes>
      <leafValues>
        1.4537633955478668e-01 -8.1937879323959351e-01</leafValues></_>
    <_>
      <internalNodes>
        0 -1 162256 1.0380160063505173e-02</internalNodes>
      <leafValues>
        1.1508098244667053e-01 -9.2882943153381348e-01</leafValues></_>
    <_>
      <internalNodes>
        0 -1 22673 -1.2775236740708351e-02</internalNodes>
      <leafValues>
        -7.4801707267761230e-01 1.2871478497982025e-01</leafValues></_>
    <_>
      <internalNodes>
        0 -1 112041 -5.1742523908615112e-02</internalNodes>
      <leafValues>
        5.2029895782470703e-01 -2.3880247771739960e-01</leafValues></_></weakClassifiers></stage3>
</opencv_storage>
